digraph Tree {
node [shape=box] ;
0 [label="X[8] <= -0.222\ngini = 0.469\nsamples = 712\nvalue = [444, 268]"] ;
1 [label="X[6] <= 0.013\ngini = 0.262\nsamples = 419\nvalue = [354, 65]"] ;
0 -> 1 [labeldistance=2.5, labelangle=45, headlabel="True"] ;
2 [label="X[12] <= 0.539\ngini = 0.459\nsamples = 73\nvalue = [47, 26]"] ;
1 -> 2 ;
3 [label="X[5] <= -0.039\ngini = 0.413\nsamples = 48\nvalue = [34, 14]"] ;
2 -> 3 ;
4 [label="gini = 0.459\nsamples = 28\nvalue = [18, 10]"] ;
3 -> 4 ;
5 [label="gini = 0.32\nsamples = 20\nvalue = [16, 4]"] ;
3 -> 5 ;
6 [label="gini = 0.499\nsamples = 25\nvalue = [13, 12]"] ;
2 -> 6 ;
7 [label="X[12] <= 0.539\ngini = 0.2\nsamples = 346\nvalue = [307, 39]"] ;
1 -> 7 ;
8 [label="X[5] <= -0.367\ngini = 0.178\nsamples = 304\nvalue = [274, 30]"] ;
7 -> 8 ;
9 [label="X[5] <= -0.505\ngini = 0.202\nsamples = 246\nvalue = [218, 28]"] ;
8 -> 9 ;
10 [label="gini = 0.08\nsamples = 24\nvalue = [23, 1]"] ;
9 -> 10 ;
11 [label="X[5] <= -0.503\ngini = 0.214\nsamples = 222\nvalue = [195, 27]"] ;
9 -> 11 ;
12 [label="gini = 0.32\nsamples = 20\nvalue = [16, 4]"] ;
11 -> 12 ;
13 [label="X[2] <= -0.224\ngini = 0.202\nsamples = 202\nvalue = [179, 23]"] ;
11 -> 13 ;
14 [label="X[2] <= -0.594\ngini = 0.145\nsamples = 76\nvalue = [70, 6]"] ;
13 -> 14 ;
15 [label="gini = 0.214\nsamples = 41\nvalue = [36, 5]"] ;
14 -> 15 ;
16 [label="gini = 0.056\nsamples = 35\nvalue = [34, 1]"] ;
14 -> 16 ;
17 [label="X[5] <= -0.486\ngini = 0.233\nsamples = 126\nvalue = [109, 17]"] ;
13 -> 17 ;
18 [label="X[5] <= -0.488\ngini = 0.203\nsamples = 87\nvalue = [77, 10]"] ;
17 -> 18 ;
19 [label="X[5] <= -0.492\ngini = 0.257\nsamples = 66\nvalue = [56, 10]"] ;
18 -> 19 ;
20 [label="gini = 0.159\nsamples = 23\nvalue = [21, 2]"] ;
19 -> 20 ;
21 [label="X[2] <= 0.072\ngini = 0.303\nsamples = 43\nvalue = [35, 8]"] ;
19 -> 21 ;
22 [label="gini = 0.227\nsamples = 23\nvalue = [20, 3]"] ;
21 -> 22 ;
23 [label="gini = 0.375\nsamples = 20\nvalue = [15, 5]"] ;
21 -> 23 ;
24 [label="gini = 0.0\nsamples = 21\nvalue = [21, 0]"] ;
18 -> 24 ;
25 [label="gini = 0.295\nsamples = 39\nvalue = [32, 7]"] ;
17 -> 25 ;
26 [label="X[5] <= -0.119\ngini = 0.067\nsamples = 58\nvalue = [56, 2]"] ;
8 -> 26 ;
27 [label="gini = 0.0\nsamples = 38\nvalue = [38, 0]"] ;
26 -> 27 ;
28 [label="gini = 0.18\nsamples = 20\nvalue = [18, 2]"] ;
26 -> 28 ;
29 [label="X[2] <= 0.004\ngini = 0.337\nsamples = 42\nvalue = [33, 9]"] ;
7 -> 29 ;
30 [label="gini = 0.408\nsamples = 21\nvalue = [15, 6]"] ;
29 -> 30 ;
31 [label="gini = 0.245\nsamples = 21\nvalue = [18, 3]"] ;
29 -> 31 ;
32 [label="X[12] <= 0.539\ngini = 0.426\nsamples = 293\nvalue = [90, 203]"] ;
0 -> 32 [labeldistance=2.5, labelangle=-45, headlabel="False"] ;
33 [label="X[9] <= 1.339\ngini = 0.5\nsamples = 165\nvalue = [84, 81]"] ;
32 -> 33 ;
34 [label="X[0] <= 0.229\ngini = 0.475\nsamples = 129\nvalue = [50, 79]"] ;
33 -> 34 ;
35 [label="X[2] <= 0.849\ngini = 0.32\nsamples = 55\nvalue = [11, 44]"] ;
34 -> 35 ;
36 [label="gini = 0.121\nsamples = 31\nvalue = [2, 29]"] ;
35 -> 36 ;
37 [label="gini = 0.469\nsamples = 24\nvalue = [9, 15]"] ;
35 -> 37 ;
38 [label="X[5] <= -0.487\ngini = 0.499\nsamples = 74\nvalue = [39, 35]"] ;
34 -> 38 ;
39 [label="gini = 0.444\nsamples = 36\nvalue = [12, 24]"] ;
38 -> 39 ;
40 [label="gini = 0.411\nsamples = 38\nvalue = [27, 11]"] ;
38 -> 40 ;
41 [label="gini = 0.105\nsamples = 36\nvalue = [34, 2]"] ;
33 -> 41 ;
42 [label="X[1] <= 0.309\ngini = 0.089\nsamples = 128\nvalue = [6, 122]"] ;
32 -> 42 ;
43 [label="gini = 0.308\nsamples = 21\nvalue = [4, 17]"] ;
42 -> 43 ;
44 [label="X[6] <= -2.188\ngini = 0.037\nsamples = 107\nvalue = [2, 105]"] ;
42 -> 44 ;
45 [label="gini = 0.18\nsamples = 20\nvalue = [2, 18]"] ;
44 -> 45 ;
46 [label="gini = 0.0\nsamples = 87\nvalue = [0, 87]"] ;
44 -> 46 ;
}